FANN_FLO_2.1
num_layers=4
learning_rate=0.700000
connection_rate=1.000000
network_type=0
learning_momentum=0.000000
training_algorithm=2
train_error_function=1
train_stop_function=0
cascade_output_change_fraction=0.010000
quickprop_decay=-0.000100
quickprop_mu=1.750000
rprop_increase_factor=1.200000
rprop_decrease_factor=0.500000
rprop_delta_min=0.000000
rprop_delta_max=50.000000
rprop_delta_zero=0.100000
cascade_output_stagnation_epochs=12
cascade_candidate_change_fraction=0.010000
cascade_candidate_stagnation_epochs=12
cascade_max_out_epochs=150
cascade_min_out_epochs=50
cascade_max_cand_epochs=150
cascade_min_cand_epochs=50
cascade_num_candidate_groups=2
bit_fail_limit=3.49999999999999977796e-01
cascade_candidate_limit=1.00000000000000000000e+03
cascade_weight_multiplier=4.00000000000000022204e-01
cascade_activation_functions_count=10
cascade_activation_functions=3 5 7 8 10 11 14 15 16 17 
cascade_activation_steepnesses_count=4
cascade_activation_steepnesses=2.50000000000000000000e-01 5.00000000000000000000e-01 7.50000000000000000000e-01 1.00000000000000000000e+00 
layer_sizes=9 17 17 2 
scale_included=0
neurons (num_inputs, activation_function, activation_steepness)=(0, 0, 0.00000000000000000000e+00) (0, 0, 0.00000000000000000000e+00) (0, 0, 0.00000000000000000000e+00) (0, 0, 0.00000000000000000000e+00) (0, 0, 0.00000000000000000000e+00) (0, 0, 0.00000000000000000000e+00) (0, 0, 0.00000000000000000000e+00) (0, 0, 0.00000000000000000000e+00) (0, 0, 0.00000000000000000000e+00) (9, 4, 5.00000000000000000000e-01) (9, 4, 5.00000000000000000000e-01) (9, 4, 5.00000000000000000000e-01) (9, 4, 5.00000000000000000000e-01) (9, 4, 5.00000000000000000000e-01) (9, 4, 5.00000000000000000000e-01) (9, 4, 5.00000000000000000000e-01) (9, 4, 5.00000000000000000000e-01) (9, 4, 5.00000000000000000000e-01) (9, 4, 5.00000000000000000000e-01) (9, 4, 5.00000000000000000000e-01) (9, 4, 5.00000000000000000000e-01) (9, 4, 5.00000000000000000000e-01) (9, 4, 5.00000000000000000000e-01) (9, 4, 5.00000000000000000000e-01) (9, 4, 5.00000000000000000000e-01) (0, 0, 0.00000000000000000000e+00) (17, 4, 5.00000000000000000000e-01) (17, 4, 5.00000000000000000000e-01) (17, 4, 5.00000000000000000000e-01) (17, 4, 5.00000000000000000000e-01) (17, 4, 5.00000000000000000000e-01) (17, 4, 5.00000000000000000000e-01) (17, 4, 5.00000000000000000000e-01) (17, 4, 5.00000000000000000000e-01) (17, 4, 5.00000000000000000000e-01) (17, 4, 5.00000000000000000000e-01) (17, 4, 5.00000000000000000000e-01) (17, 4, 5.00000000000000000000e-01) (17, 4, 5.00000000000000000000e-01) (17, 4, 5.00000000000000000000e-01) (17, 4, 5.00000000000000000000e-01) (17, 4, 5.00000000000000000000e-01) (0, 0, 0.00000000000000000000e+00) (17, 4, 5.00000000000000000000e-01) (0, 0, 0.00000000000000000000e+00) 
connections (connected_to_neuron, weight)=(0, -2.29568638787545431512e+00) (1, -1.64051004793068472276e-01) (2, 4.77347438053529027346e-01) (3, -4.97245285601035022505e-02) (4, 1.27388032252834862423e-02) (5, -8.84535554737463647346e-02) (6, -2.01977761456431537113e-01) (7, -1.10320327399122800061e-01) (8, -1.82287437835396859409e-01) (0, -2.18357342616595495599e+00) (1, 1.12259040724420056101e-01) (2, 7.20719971181351448664e-01) (3, -3.40389788310849039643e-01) (4, -1.27231423130695769919e-02) (5, -3.13763030033432810395e-01) (6, -2.23408393721901687989e-01) (7, -2.33824398098756353059e-01) (8, -1.92291103463494095216e-01) (0, -6.12599711126467383338e+00) (1, 2.37389668296630412803e-01) (2, 2.08946002651466722355e+00) (3, -7.03004077444922687024e-02) (4, 9.89944732956365147647e-02) (5, -1.90873779724491203502e-02) (6, 4.61967512597189766677e-02) (7, 8.77049854198560380203e-02) (8, 3.61349209775077284679e-02) (0, -7.16741383675500998152e+00) (1, 2.98287860852550379409e-01) (2, 2.31405878160070344052e+00) (3, 1.28760023273371305985e-02) (4, -1.00300312410248164408e-02) (5, 4.33729572452448974840e-02) (6, 4.95381636775874267808e-02) (7, -2.11890275565018909587e-01) (8, -8.68164540968990455783e-02) (0, -2.17924295760695407864e+00) (1, 7.43093399999110282295e-01) (2, 4.56768181505489090366e-01) (3, -2.71475455632485332402e-02) (4, -8.64333238706520984307e-02) (5, -1.26967786895302664485e-01) (6, -1.68519250201252857035e-01) (7, -3.58178927849181150123e-01) (8, -1.30232009189394815074e-01) (0, -2.28646925971783865350e+00) (1, -8.96027545589413165761e-02) (2, 6.29393842832486227756e-01) (3, -1.43695773550929162266e-01) (4, 1.89763324434803551388e-02) (5, -1.50189312169016930820e-01) (6, -1.46416822442473504307e-01) (7, -1.81554368064900689683e-01) (8, -1.31786638864935939930e-01) (0, -2.96825654462792831723e+00) (1, -1.38295320622619788420e-01) (2, 6.10322927376070523131e-01) (3, -1.75955636035295681641e-01) (4, -1.28347492176691668764e-02) (5, -8.46177801300012216723e-02) (6, -2.25877159814926398163e-01) (7, -8.60113610433277941958e-02) (8, -2.15799698214622748260e-01) (0, -2.30900713114346567423e+00) (1, 2.01266999494218390421e-01) (2, 7.68072631911054903853e-01) (3, -1.99114628296219620118e-01) (4, -1.60826231109170270095e-01) (5, -2.51653276543938375642e-01) (6, -1.98821313839279922853e-01) (7, -1.14244526031290871693e-01) (8, -3.88068720858418536590e-01) (0, -2.32997607947267759698e+00) (1, -2.08596178879665722361e-01) (2, 5.79212646507880513091e-01) (3, -1.06513423101642593083e-01) (4, -6.79217252591840653375e-02) (5, 2.68270335938643970236e-03) (6, -1.17804874853828414616e-01) (7, -2.98890142987616624914e-01) (8, -1.21269171313980086979e-01) (0, -2.21556362644709814447e+00) (1, -1.15698584463020795465e-01) (2, 6.00454029457013205295e-01) (3, -1.74661872902573678257e-01) (4, 1.40745738344912413309e-01) (5, -5.92674557060614490278e-02) (6, -2.18136260280074267826e-01) (7, -2.11328836457034430207e-01) (8, -2.10786061355532794437e-01) (0, -6.41084132688447549953e+00) (1, 2.23178014601476709666e-01) (2, 2.02924510464993890224e+00) (3, 6.18922842897318414845e-02) (4, 8.04224174639749794791e-02) (5, 1.84434188760660734696e-02) (6, -7.31774920366859565890e-02) (7, -1.44771472418822017003e-01) (8, 6.15499301113033026045e-02) (0, -6.59268935979591308438e+00) (1, 1.71953343297250788035e-01) (2, 2.00495412574140008388e+00) (3, 6.92066831745050403679e-02) (4, 1.07304969074444797594e-01) (5, 5.72936220325374334639e-02) (6, -1.35610865198231601847e-02) (7, -2.66648971558202441123e-01) (8, -5.41508698605156352235e-02) (0, -2.27297490225114096063e+00) (1, -1.46984477171468091994e-01) (2, 4.74220876411835912112e-01) (3, -5.37905041069403552778e-02) (4, -2.53631894637757794586e-02) (5, -1.39344589778842065098e-01) (6, -9.40217766851797753791e-02) (7, -2.33053243086835282227e-01) (8, -1.41527058550776574375e-01) (0, -2.26862382278718222040e+00) (1, -5.87605264811827399107e-02) (2, 5.98446067753123811528e-01) (3, -7.44866702720909379387e-02) (4, -1.51760682068611874040e-01) (5, -1.92567181961277034130e-01) (6, -8.10886222884445312387e-02) (7, -2.93864771078475084387e-01) (8, -1.66058396177032496777e-01) (0, -2.15273337076657034217e+00) (1, 1.76070924015598838375e-02) (2, 5.05305774840402399661e-01) (3, -1.70241982400303637490e-01) (4, 4.98886156573363145905e-02) (5, -1.34378482311850344644e-01) (6, -1.13493269670562565467e-03) (7, -3.00279685568916598903e-01) (8, -8.09871486424263015147e-02) (0, -6.43704116864633135719e+00) (1, 2.24900775544969427910e-01) (2, 2.06418315118659112528e+00) (3, -5.46522438894164880319e-02) (4, 2.37478875758366625437e-01) (5, -6.69710374916875766926e-04) (6, -2.11166479061496818737e-02) (7, 8.03236917949296386210e-02) (8, -2.15877704690349662975e-02) (9, -9.06813667389431365962e-01) (10, -9.72626410390900364433e-01) (11, -3.71990038908279885277e+01) (12, -1.55713529420235552436e+01) (13, -8.56706128689327606196e-01) (14, -1.13917330480365297518e+00) (15, -8.77692626091518768305e-01) (16, -9.95349710460927572520e-01) (17, -9.17362631532230743403e-01) (18, -8.73817743035831817622e-01) (19, -1.16874945756544832420e+01) (20, -1.16068979125966791344e+01) (21, -1.04343408462671294323e+00) (22, -9.71450605663338073725e-01) (23, -9.19266269775905975337e-01) (24, -3.72300869270421017632e+01) (25, -3.07220836746856136579e-02) (9, 3.36735425661145226783e-01) (10, 3.23285402858471071497e-01) (11, 2.03754101899363798678e-01) (12, 5.80416591797166980804e-01) (13, 2.33903227518139716912e-01) (14, 2.65241442392407433815e-01) (15, 2.04654272426832845033e-01) (16, 2.92407909536575472131e-01) (17, 2.89437314639626519508e-01) (18, 3.87415407369671727089e-01) (19, 8.17937159421888021482e-02) (20, 6.06596225383725234925e-02) (21, 3.45867036054669396705e-01) (22, 2.25563218961296912957e-01) (23, 2.94232560465870873756e-01) (24, 1.74187635930237255666e-01) (25, 1.81366627210748143639e-01) (9, -2.36796494919310568372e-01) (10, -1.61096033670663496551e-01) (11, -5.45855633469068401986e-01) (12, -1.15811469672626099481e+00) (13, -2.70931353543126737793e-02) (14, -1.78812440830718094587e-01) (15, -1.12550464489221194175e-01) (16, -7.48916439032516843138e-03) (17, -2.63735626238833287260e-01) (18, -9.99074829425675853267e-02) (19, -4.19107219750844972594e-01) (20, -4.55167821223699642363e-01) (21, -2.10834350782881790876e-01) (22, -1.67894391026360834118e-02) (23, -1.94606792527686173200e-01) (24, -5.22578551919900768929e-01) (25, 1.51227452363637465682e-01) (9, 2.49662407984220680035e-01) (10, 2.66123839964353681165e-01) (11, 2.34845856835824484676e-01) (12, 6.00217952122281017679e-01) (13, 3.54030543317281842786e-01) (14, 1.88567907859766126233e-01) (15, 2.36492441346132481472e-01) (16, 3.20115634550535266278e-01) (17, 3.33518916120016162274e-01) (18, 1.80141703535997510510e-01) (19, 2.21369213952792631694e-01) (20, 1.03441826596034347485e-01) (21, 2.16897712399446607190e-01) (22, 2.57163831343137860852e-01) (23, 3.51762109746419970868e-01) (24, 1.84322531034928849270e-01) (25, 1.45924223045110934560e-01) (9, 2.88427103395660910934e-01) (10, 2.43094142219038300556e-01) (11, 2.00929924614980215392e-01) (12, 5.57810206399422914281e-01) (13, 2.25665081377228377013e-01) (14, 2.27117290864525672722e-01) (15, 2.69122671117056622148e-01) (16, 3.01393472850464028134e-01) (17, 2.61017719427882155525e-01) (18, 2.20509102712212440300e-01) (19, 1.49264611073090941451e-01) (20, 1.02537691362454802535e-01) (21, 2.86981511945923362106e-01) (22, 3.51023746798573510475e-01) (23, 3.11132241125305686325e-01) (24, 2.96853576806285268663e-01) (25, 1.54354562157761998620e-01) (9, 6.01847230415614997678e-02) (10, 4.89193649325333823619e-01) (11, 8.37374040413714354480e-02) (12, 4.78831789693898945970e-01) (13, 1.98081879220512763196e-01) (14, 3.84772666814319930229e-01) (15, 3.95807060820321132688e-01) (16, 4.25843038890324709911e-01) (17, 4.15562766643788050747e-01) (18, 4.47311268272392592582e-01) (19, -2.23930681543796694655e-01) (20, -1.04554677801578482788e-01) (21, 3.03392703684593867397e-01) (22, 4.57162947478287062797e-01) (23, 2.34434876121801416549e-01) (24, 5.13497755536720279501e-01) (25, 1.08903536736693146159e-01) (9, -1.69109655952238979726e-01) (10, -2.65109306609415729117e-01) (11, -4.07943804355632544389e-01) (12, -1.00425011247380613355e+00) (13, -1.64999019700537735700e-01) (14, -2.01674310898566189199e-01) (15, -2.84717528557562549185e-01) (16, -2.96190005439955550415e-01) (17, -1.74456281995558681874e-01) (18, -1.95451481675887051015e-01) (19, -4.91917271705638703416e-01) (20, -4.08509050103198767534e-01) (21, -2.03525243735098781972e-01) (22, -2.57757036423468310904e-01) (23, -2.59791581368231494498e-01) (24, -3.68501704724799872270e-01) (25, 7.50710400691022988751e-02) (9, 2.89252123213028455861e-01) (10, 2.88715688407521764436e-01) (11, 2.01788699580133151779e-01) (12, 6.87820451629240547931e-01) (13, 1.12022420740341646650e-01) (14, 2.47756006693612168545e-01) (15, 2.17061367273319150151e-01) (16, 2.22630694727270428412e-01) (17, 2.86793982959007764943e-01) (18, 2.49526525413762134686e-01) (19, 2.57902636516394057065e-01) (20, 8.85213681939261698428e-02) (21, 2.28511421358799649006e-01) (22, 1.58956302678799177297e-01) (23, 3.05839157080864454397e-01) (24, 1.59699147863618134968e-01) (25, 1.46055406050288577591e-01) (9, 2.60730082313357314217e-01) (10, 2.20656506824627257624e-01) (11, 2.22641614285208983004e-01) (12, 7.11430329955131335318e-01) (13, 2.86796253259380851119e-01) (14, 3.10700265834866540260e-01) (15, 3.11814199914206280351e-01) (16, 3.14829187770771234955e-01) (17, 2.14885262916622993279e-01) (18, 2.73546098837509521484e-01) (19, -6.69663494941746817446e-02) (20, 3.38090264680828006538e-02) (21, 2.16901702950535651970e-01) (22, 2.38805210362015601921e-01) (23, 3.00027815769253747291e-01) (24, 3.03544588941353665756e-01) (25, 2.05363911682736821618e-01) (9, 3.31938081731283252118e-01) (10, 3.53030425142217940682e-01) (11, 2.33016280103935935486e-01) (12, 7.08250915363022204296e-01) (13, 2.21705577675148951533e-01) (14, 3.23447996129476611493e-01) (15, 2.04910475126448887728e-01) (16, 2.66314101131246316889e-01) (17, 2.66047827307030526622e-01) (18, 3.12763505925619189618e-01) (19, 6.41460123005589549772e-02) (20, 8.58080389443120761239e-02) (21, 2.74265668693825570568e-01) (22, 2.52428473283731580334e-01) (23, 1.20856791142270006412e-01) (24, 2.87595334813021297204e-01) (25, -3.28870167076647443305e-02) (9, -1.26177951559573647833e-01) (10, -2.58305181176437692603e-01) (11, -3.80237315291350908009e-01) (12, -4.32612155074065862781e-01) (13, -3.44212754282956640006e-02) (14, -1.70858706173338231737e-01) (15, -1.56710178459032845044e-01) (16, -3.31122573823704080542e-01) (17, -2.34242863819152102867e-01) (18, -1.50725538668074060533e-01) (19, -3.99038400085596767219e-01) (20, -7.41980191831962732074e-01) (21, -2.34188757702857242027e-01) (22, -1.04127511248141790823e-01) (23, -1.67958401009589503028e-01) (24, -3.48913994127696525105e-01) (25, 5.06057094301519350132e-01) (9, 2.05284012830471707112e-01) (10, 2.69172285969235702829e-01) (11, 2.19438119185865115890e-01) (12, 6.79879403862781450663e-01) (13, 2.57238200283264661916e-01) (14, 2.55589535539375634077e-01) (15, 2.69521735974120824064e-01) (16, 2.93991614074115836797e-01) (17, 1.44933423376297554341e-01) (18, 2.33249480675858628098e-01) (19, 2.59800835836233534604e-01) (20, 1.38705591994823740354e-01) (21, 1.38792677200054725972e-01) (22, 3.54801734988914763136e-01) (23, 1.13902910030102236250e-01) (24, 2.18044486654942359927e-01) (25, 8.51932522817491766354e-02) (9, -9.86730315956154235835e-01) (10, -9.77475903894470921074e-01) (11, -3.72682302228368271813e+01) (12, -1.56051411238649286872e+01) (13, -9.63862822624721893305e-01) (14, -1.20610774136333009920e+00) (15, -9.05489788624325164790e-01) (16, -9.86117003139283743174e-01) (17, -1.04307747003702178112e+00) (18, -8.59506190988102325434e-01) (19, -1.16175704669704202843e+01) (20, -1.15989608165373567772e+01) (21, -9.13021312328853973384e-01) (22, -9.90695514949836986140e-01) (23, -1.03512200829652800671e+00) (24, -3.72861963293708313927e+01) (25, 4.51485941541030777469e-02) (9, 3.47045628498135583229e-01) (10, 3.53882435490359081864e-01) (11, 1.36191747851922312362e-01) (12, 3.33767326165536171168e-01) (13, 2.31072466905315992980e-01) (14, 2.98480784664689080543e-01) (15, 2.66978215207327618241e-01) (16, 2.08301090896270857389e-01) (17, 3.48846806357441918678e-01) (18, 2.95424295733510033912e-01) (19, 2.58278280265882120847e-01) (20, 2.26309120424344645262e-01) (21, 3.99249239037571812538e-01) (22, 2.78478292892514245338e-01) (23, 2.20354354153214332390e-01) (24, 1.60608380802228362105e-01) (25, 1.65055361682546086755e-01) (9, -9.97428007802387495140e-01) (10, -2.16922550896370830431e-01) (11, -1.89149154064241353801e+00) (12, -4.01713976540786354974e+00) (13, -2.88563124338352960940e-01) (14, -8.40738103172203321556e-01) (15, -8.57935588139912219674e-01) (16, -3.84158864120209497806e-01) (17, -2.93960041800701898929e-01) (18, -9.13812980434318800071e-01) (19, -1.01138647283775084951e+00) (20, -2.31730381545315067271e+00) (21, -9.10648115357776899437e-01) (22, -3.39032992223465723391e-01) (23, -3.30376751223767084475e-01) (24, -7.13748945599446571464e+00) (25, 1.94722128716110631785e+00) (9, 2.79764700765808616012e-01) (10, 2.92238194188089772663e-01) (11, 8.56476423817418563988e-02) (12, 5.30631248341065564489e-01) (13, 2.92093206281860862106e-01) (14, 3.59174786279736424355e-01) (15, 2.42233980228174800020e-01) (16, 2.80819178819797676816e-01) (17, 3.10164241264401452369e-01) (18, 2.38461336265145179558e-01) (19, 2.28916540511205302000e-01) (20, 2.01402723558499807677e-01) (21, 3.19247741337021384567e-01) (22, 2.53206135849295577156e-01) (23, 3.42360537584026847213e-01) (24, 2.01762964037158293307e-01) (25, 8.31041756216406857227e-02) (26, 6.35306464180878438519e-01) (27, -2.75010400217702677406e-01) (28, 3.93139409666489525463e-01) (29, -2.02593103748491126792e-01) (30, -2.66943395835092467383e-01) (31, -1.86550722223451509452e-01) (32, 3.75882112197193973824e-01) (33, -1.95694447261026277518e-01) (34, -2.69529455107381687995e-01) (35, -1.95074171525171174979e-01) (36, 1.58084649951740097151e+00) (37, -2.07680330377748328941e-01) (38, 6.23620632531754370831e-01) (39, -2.28436597388913947837e-01) (40, 1.49626455997682317189e+00) (41, -4.27277389429170761925e-01) (42, -8.86886597468329734850e-02) 
